Language model created by QuickLM on Fri Oct  9 01:47:19 EDT 2020
Copyright (c) 1996-2010 Carnegie Mellon University and Alexander I. Rudnicky

The model is in standard ARPA format, designed by Doug Paul while he was at MITRE.

The code that was used to produce this language model is available in Open Source.
Please visit http://www.speech.cs.cmu.edu/tools/ for more information

The (fixed) discount mass is 0.5. The backoffs are computed using the ratio method.
This model based on a corpus of 8 sentences and 11 words

\data\
ngram 1=11
ngram 2=19
ngram 3=20

\1-grams:
-0.9777 </s> -0.3010
-0.9777 <s> -0.2527
-1.5798 DO -0.2398
-1.8808 DON'T -0.2527
-1.4037 I -0.2835
-1.5798 IS -0.2398
-1.8808 ISN'T -0.2527
-1.4037 IT -0.2835
-1.1818 NO -0.2126
-1.5798 NOT -0.2527
-1.4037 YES -0.2126

\2-grams:
-0.5051 <s> NO 0.0000
-0.7270 <s> YES 0.0000
-0.6021 DO </s> -0.3010
-0.6021 DO NOT 0.0000
-0.3010 DON'T </s> -0.3010
-0.4771 I DO 0.0000
-0.7782 I DON'T 0.0000
-0.6021 IS </s> -0.3010
-0.6021 IS NOT 0.0000
-0.3010 ISN'T </s> -0.3010
-0.4771 IT IS 0.0000
-0.7782 IT ISN'T 0.0000
-1.0000 NO </s> -0.3010
-0.6990 NO I 0.0000
-0.6990 NO IT 0.0000
-0.3010 NOT </s> -0.3010
-0.7782 YES </s> -0.3010
-0.7782 YES I -0.1249
-0.7782 YES IT -0.1249

\3-grams:
-1.0000 <s> NO </s>
-0.6990 <s> NO I
-0.6990 <s> NO IT
-0.7782 <s> YES </s>
-0.7782 <s> YES I
-0.7782 <s> YES IT
-0.3010 DO NOT </s>
-0.6021 I DO </s>
-0.6021 I DO NOT
-0.3010 I DON'T </s>
-0.3010 IS NOT </s>
-0.6021 IT IS </s>
-0.6021 IT IS NOT
-0.3010 IT ISN'T </s>
-0.6021 NO I DO
-0.6021 NO I DON'T
-0.6021 NO IT IS
-0.6021 NO IT ISN'T
-0.3010 YES I DO
-0.3010 YES IT IS

\end\
